"film" -0.0629146490246058 0.338607467710972 -0.449330158531666 -0.255256101489067 0.267442420125008 -0.198092520236969 0.31407642364502 0.409841034561396 0.0453533967956901 0.0797884687781334 0.51880931854248 0.969289947301149 -0.732015758752823 -1.24984091520309 0.788869053125381 0.0851923301815987 -0.139438457787037 0.247730158269405 -0.366551332175732 0.0926928631961346 1.02020978927612 0.182044550776482 -0.289388209581375 -0.491723150014877 0.304490525275469 -0.896984666585922 -0.460867792367935 0.840411193668842 0.113946959376335 0.108285933732986 -0.307864539325237 0.341910131275654 0.909087508916855 -1.08463755249977 0.0770621299743652 0.0611487403512001 0.999562799930573 -0.756761878728867 0.214052438735962 -1.01209959387779 0.462620206177235 -0.304189965128899 0.285037286579609 1.0619960129261 -0.423651181161404 0.581012547016144 0.793677181005478 -0.075664222240448 -0.435800142586231 -0.188208353240043
"movie" -0.61808317899704 0.648208528757095 -0.0765618160367012 -0.278908444568515 0.490071449428797 -0.0462279878556728 -0.031648974865675 0.440827682614326 0.303171247243881 0.105169802904129 0.286091804504395 1.11052680946887 -0.507098317146301 -0.938358277082443 0.957145601511002 -0.213780507445335 -0.49619210138917 0.242679338902235 -0.363736391067505 0.134600982069969 0.83574652671814 0.11745577538386 -0.314138889312744 -0.611682817339897 -0.131717246025801 -0.992442220449448 -0.127952694892883 0.55253011919558 0.453357204794884 0.203903443180025 0.0985362529754639 0.219353828579187 0.987006336450577 -0.847745925188065 0.205792054533958 0.221412301063538 0.756324455142021 -0.678129613399506 0.175364576280117 -1.11850368976593 0.371732339262962 -0.140035808086395 0.432282578200102 0.835267782211304 -1.23267543315887 0.120094934478402 1.02996164560318 -0.0661150068044662 -0.035830270498991 0.161313995718956
"directors" -0.0760857027489692 -0.151594741269946 0.118223464116454 -0.286012850701809 -0.381136149168015 0.532080247998238 0.683567456901073 -0.120074510574341 -0.082392543554306 -0.157542206346989 -0.688625492155552 0.250549092888832 0.0702108666300774 0.0535951741039753 -0.0809736251831055 -0.779253333806992 1.23411965370178 -0.229157313704491 0.257425058633089 0.198704585433006 -0.42379441857338 0.141644468531013 -0.337444797158241 -0.357388511300087 0.00907059013843536 -0.379441469907761 -0.314319126307964 0.454325020313263 0.216286674141884 -0.365424059331417 0.610169678926468 0.399928107857704 0.248065620660782 0.336848825216293 0.268662370741367 -0.302006155252457 -0.195333354175091 -0.968442440032959 -0.246200241148472 0.387425556778908 -0.215572893619537 -0.208603501319885 -0.525072857737541 0.290853898972273 0.982122540473938 0.320080114528537 -0.158630916848779 0.158779948949814 -0.77379996329546 -0.359257504343987
"producers" 0.147337675094604 -0.0681852400302887 0.661275878548622 -0.404544219374657 0.565361544489861 0.308248102664948 0.538340330123901 -0.441283017396927 0.14132409915328 -0.0121259391307831 -0.277353659272194 0.574516326189041 -0.0362737001851201 0.310770526528358 0.0418934053741395 -0.852485120296478 0.962513566017151 -0.385651908814907 0.0068599209189415 -0.189096551388502 -0.506935004144907 0.231280758976936 -0.0557262152433395 -0.247420184314251 0.465161666274071 -0.12391310185194 -0.346842221915722 0.960169345140457 0.164135973900557 -0.260912825353444 0.631743475794792 -0.111595511436462 -0.371297687292099 0.220240493188612 0.312621723860502 -0.220575481653214 -0.320653833448887 -1.17853611707687 0.010583721101284 0.363179884850979 -0.189341723918915 0.112213917076588 -0.527276169508696 0.406738221645355 0.698966860771179 0.240352975204587 0.455362617969513 0.298830049112439 -0.222075520083308 0.410838965326548
"science" 0.0575356334447861 -0.1141197681427 0.732970327138901 -0.424574308097363 -0.574862942099571 0.910672426223755 -0.0228736698627472 -0.255163714289665 1.1981592476368 0.429142117500305 0.526080038398504 0.107770800590515 -0.2275730073452 -0.784959375858307 -0.996791183948517 -1.1059707403183 -0.941221296787262 -0.320085247047246 0.573613774031401 0.133741878904402 -0.220236413180828 0.712548851966858 0.890205308794975 0.258257858455181 0.447744909673929 -0.391943636350334 -0.0855323821306229 -0.17729227617383 1.02941849827766 -0.579840064048767 0.302366450428963 -0.568243503570557 0.226853156927973 -0.35968385450542 0.571043990552425 0.487077783793211 0.249215733725578 0.492819488048553 0.687961965799332 -0.473326310515404 -0.97505447268486 0.682700484991074 1.0800244808197 -0.0921388268470764 0.0555080845952034 -0.568318545818329 -0.680522307753563 0.355431161820889 -0.54537758231163 0.177864573895931
"criminals" 0.0920830592513084 -0.62332022190094 0.0968875288963318 -0.256627626717091 -0.76140221953392 0.106978744268417 -0.204645678400993 -0.518544849008322 -0.200519986450672 -0.436286639422178 0.111654192209244 0.499805003404617 -0.0711385607719421 0.270823895931244 -0.321912094950676 -0.0640950351953506 0.205050937831402 -0.347263038158417 -0.537736475467682 0.217154810205102 -0.496036291122437 0.0640837401151657 0.652195580303669 -0.19553479552269 -0.135913789272308 0.146950379014015 0.923445105552673 0.0814136639237404 -0.343000784516335 -0.0112931504845619 0.757646679878235 -0.343785233795643 -0.173302605748177 0.80404444038868 0.102878711652011 -0.117376983165741 -0.179634632542729 0.0182968229055405 -0.297845542430878 -0.157894477248192 0.0201959609985352 0.506354987621307 -0.764831714332104 -0.188414342701435 1.27934587001801 -0.208778351545334 0.0508386641740799 -0.185381259769201 0.00360716879367828 -0.650414779782295
"man" -0.254175264388323 0.211108177900314 -0.0667803883552551 0.0393116101622581 0.294773672707379 -0.13301070779562 -0.384257316589355 -0.0142600014805794 -1.12694492936134 0.074896976351738 0.00690221786499023 -0.311021525179967 -0.101209595799446 0.655097842216492 0.946797251701355 1.12490883469582 -0.104925822466612 0.33976137638092 -0.270568175241351 -0.846807315945625 1.24436467885971 0.637790888547897 -0.157468229532242 -0.147431395947933 -0.0836363732814789 -0.633132517337799 1.01422220468521 0.257491528987885 -0.525415226817131 -0.569885544478893 -0.223297581076622 0.342868857085705 0.776500105857849 0.80149444937706 0.596164584159851 0.28423659875989 1.40433079004288 -0.39618781208992 -0.469426989555359 -0.335812754929066 0.0545616894960403 -0.13297101855278 0.596036463975906 0.0114708803594112 0.341386511921883 0.0259570553898811 0.226297415792942 -0.707824558019638 -0.128432579338551 0.456419914960861
"woman" -0.584246963262558 -0.0798285156488419 -0.10370565764606 0.170615427196026 -0.218364324420691 0.495883606374264 -0.0387758016586304 -0.216375239193439 -0.8496033847332 -0.0277942195534706 -0.557722669094801 -0.210319980978966 0.278209047392011 0.208198010921478 0.737820446491241 1.37060502171516 -0.374131262302399 -0.0201523452997208 0.205878689885139 -0.564219817519188 0.980873942375183 0.848012119531631 -0.182561513036489 0.050676591694355 0.399213150143623 -0.780876368284225 1.01206243038177 -0.367987759411335 -0.697657257318497 -0.140738829504699 -0.327294252812862 0.0744912326335907 -0.0847356313606724 0.773262336850166 0.467791095376015 -0.160995997488499 1.07511302828789 -0.457929261028767 0.132598914206028 -0.616715982556343 0.212253488600254 -0.265496000647545 0.297141522169113 -0.193052167072892 0.418353781104088 0.0758917285129428 0.433710269629955 -0.839597791433334 -0.701447054743767 0.718039125204086
"person" -0.848351657390594 0.288415670394897 -0.289215549826622 0.284014716744423 0.256842866539955 -0.384283218067139 -0.19793638586998 0.222891680896282 -0.377367556095123 -0.357349537312984 -0.683808833360672 0.0232894830405712 -0.522613674402237 0.356297289952636 0.237900272011757 0.570173967629671 0.154248410835862 -0.0772547014057636 0.481305941939354 -0.366829879581928 0.27341927587986 0.30072583258152 -0.206773698329926 -0.290429681539536 -0.297433897852898 -0.833154201507568 0.988337606191635 -0.0720085501670837 -0.75689759850502 0.210664197802544 -0.214569309726357 -0.269634902477264 0.558966681361198 0.435138948261738 0.0819947374984622 -0.0993645191192627 0.547039799392223 -0.170076988637447 -0.320895261829719 -0.229007415473461 1.0135450065136 0.319410488009453 1.15851998329163 -0.33691942691803 -0.0677849724888802 0.193512216210365 0.495335102081299 0.504350826144218 0.137799859046936 0.346561266109347
"young" -0.435314662754536 -0.00479549169540405 0.830259948968887 -0.229560643434525 -0.523794434964657 0.559298276901245 -0.298060385975987 -1.10371494293213 -0.681668102741241 -0.0998236536979675 -0.519238963723183 -0.186109997332096 1.21280163526535 0.206937190145254 0.562065303325653 0.354176428169012 0.0191511139273643 -0.0440686941146851 0.0562998950481415 -0.145855695009232 1.24797832965851 0.764911383390427 0.278176516294479 -0.463761672377586 0.278886210173368 -0.774469971656799 0.944454342126846 0.318025656044483 -0.0396965965628624 -0.300096943974495 -0.315371047705412 0.112516906112432 -0.000775955617427826 1.03541031479836 0.554282963275909 0.202887702733278 1.57534289360046 -0.580347701907158 0.586912900209427 -0.188862137729302 0.19526244699955 -0.726450681686401 -0.0186573415994644 -0.455930307507515 0.768526285886765 0.341102883219719 0.535559952259064 -0.707793027162552 -1.28850889205933 0.488847240805626
"girlfriend" -0.486313968896866 -0.496267065405846 -0.187249824404716 -0.435946732759476 0.300894640386105 -0.273139744997025 -0.186316473409534 -1.2656207382679 -0.497079595923424 -0.530395342037082 -0.327866584062576 -0.0259837973862886 -0.00204654783010483 0.503919959068298 -0.314945373684168 0.847778975963593 -0.145341020077467 0.126983480062336 0.13534776866436 -0.508639469742775 -0.169799724593759 0.0430383086204529 -0.594072185456753 -0.480835258960724 -0.323836982250214 -0.633546888828278 0.819841325283051 -0.66553270816803 0.525239408016205 -0.0562613569200039 -0.561604574322701 0.362756803631783 -0.388047754764557 0.435908243060112 0.322016038000584 0.0600818460807204 -0.56205278635025 0.731600135564804 -0.897033452987671 0.229095269925892 0.0971055808477104 -0.230276182293892 0.863719433546066 -0.00428375601768494 -0.192177563905716 -0.667697980999947 0.181097432971001 -0.505875319242477 -0.323175378143787 0.135373139288276
"boyfriend" -0.563520774245262 -0.113682329654694 -0.278538256883621 0.256161473691463 0.678352028131485 0.28034745156765 0.00898848474025726 -0.738546133041382 -0.489147573709488 0.318353667855263 -0.378912445157766 -0.0092584639787674 0.424674734473228 0.776963517069817 -0.517496911808848 0.707443624734879 -0.243522115051746 -0.200858369469643 0.165196374058723 -0.623727798461914 0.944464161992073 0.62677176296711 -0.232917457818985 0.0211756783537567 -0.390832623466849 0.00276292860507965 0.761494517326355 -0.63590120524168 -0.0666210874915123 -0.267910115420818 0.371979065239429 0.784468173980713 -0.512589797377586 0.400370143353939 -0.36432072520256 -0.389255091547966 -0.848866030573845 0.544828101992607 -0.354567229747772 0.466667175292969 -1.02869978547096 -0.612326674163342 -0.0578165873885155 0.106822596862912 0.0512727871537209 -0.378171175718307 -0.0305739864706993 -1.3786728978157 -0.0226571075618267 0.0612231269478798
"father" -0.0749621577560902 -0.670755913481116 -0.440387606620789 0.255059413611889 0.0499694012105465 -0.325389962643385 0.300055593252182 -1.22597545385361 -0.369979962706566 -0.0759399458765984 -0.439682263880968 -0.488203953951597 0.78593236207962 0.881737679243088 -0.15635259449482 0.526218121871352 -0.408323690295219 0.195201113820076 0.385980732738972 -1.14248031377792 0.793380096554756 0.0728854611515999 -0.360360022634268 -0.610632658004761 0.0531605705618858 -0.161282852292061 0.633401587605476 -0.251733155921102 0.0958076547831297 -0.19108384847641 -0.632532723248005 0.754628956317902 0.160722037777305 0.290326669812202 -0.294253829866648 -0.400083126500249 0.454750806093216 0.839026540517807 -0.97869411110878 -0.530429169535637 -0.48941458761692 -0.414666905999184 0.538488671183586 0.127906165085733 -0.0410645306110382 0.433932259678841 0.693952828645706 -0.53805960714817 -0.320398345589638 0.00889623165130615
"son" -0.430163994431496 -0.781012207269669 -0.0373689830303192 0.230929814279079 0.210201803594828 -0.310846224427223 0.109901567921042 -1.2151143848896 -0.779490053653717 -0.207909241318703 -0.403349425643682 -0.455726250540465 0.59083491563797 0.73780769109726 -0.690772622823715 0.672452539205551 0.0134875662624836 0.383560433983803 0.434691369533539 -1.13042867183685 0.956803262233734 -0.0477748066186905 -0.407955896109343 -0.514360442757607 -0.0142867118120193 -0.295883543789387 0.642614528536797 -0.194118104875088 -0.0902550350874662 -0.236384220421314 -0.167889557371382 0.476284369826317 -0.127592507749796 0.241027548909187 -0.0174074023962021 -0.23387522995472 0.898590326309204 0.382212400436401 -0.307857781648636 -0.00637796695809811 -0.290069282520562 -0.632686108350754 0.370470285415649 -0.142687417566776 0.139710046350956 0.337479116395116 0.582451686263084 -0.498367235064507 -0.372501030564308 -0.0597506314516068